-6,38661890425082 -4,26776312905552 3,4339031406378 6,75925245037829 0,679575651164555 -5,68218830951066 0,170149352481386 -3,32761844099114 3,62250307317525 3,31869642017976 -4,29724850978106 4,82397989415441
-5,74308426361527 -5,44826958096379 -1,34283516775656 -3,69003259004519 -5,92031107723923 1,49543017922008 -6,51224808972468 -1,10287971203639 -4,420521214306 0,184262320128846 0,978528327676017 -8,25787343896475
-4,49406582585745 7,02946598032202 -4,95764000513501 -3,56501633780336 -6,15014225491517 -0,161682837296963 -6,04427735355561 1,45089058854835 -0,0527442831029175 -4,147307174227 0,166432446544048 6,65986151053097
9,22635494843072 -3,64117950609842 -3,10705500151704 -5,1476663529019 0,653646210153498 -5,53249440908328 0,641570451844913 -3,43069791819144 -4,95049863302777 -3,3189401175567 -4,28526833750276 4,33738890997086
-1,98085568604052 -1,21575976007487 -1,26755257082779 -1,44274395814395 1,55809024044442 1,79605363489707 2,02846537052943 0,825550558054883 -1,82301589404417 -2,38836319418916 0,793041396380662 1,22380513624417

-8,93011405469309 -9,32150059065324 -8,57200139194773 8,09813782687259
-6,06759290718446 -5,76160893919082 6,31280320192786 -7,46588545027802
2,28898231622493 -0,589401555172007 -4,23215746699364 -1,03245874679864
4,48608489864458 -6,00036915996968 -3,24585194146173 -5,21949396866895
5,42214706601481 -2,17679542558544 -4,38541474810046 4,75626165626477
-3,72931307665739 4,45436069740538 3,7980295427831 -4,63331861697265
5,54332746096615 -2,99316721602788 -2,88370893636078 6,58753180415697
-3,44161696061618 0,485967962841074 4,13432306742548 -3,09153965893876
3,50738646518679 -5,2531699973871 -1,05527086493564 -4,27665018519508
2,5397076908351 0,165163522439957 -2,59662373059177 -1,8182361393352
-4,13505002800507 3,82374171717267 3,44942055254523 -0,573907713599413
7,01981455756333 -5,88198471288074 8,62730998526684 8,62325400060472
0,895642445734702 13,4173920187999 -0,428667752100616 -0,30881501761249
